<?xml version="1.0" encoding="us-ascii"?><NeuralNetwork xmlns:xsi="http://www.w3.org/2001/XMLSchema-instance" xmlns:xsd="http://www.w3.org/2001/XMLSchema"><Neurons><Neuron weight="-8 -41 -46 -32 -15 -53 -8 -64 39 -308 -188 -154 -243 -71 -128 -201 -273 -430 -333 -260 -513 -377 -364 -350 -2 -15 -56 -16 &#xA;-41 1 13 -12 -29 -55 3 -75 -140 -286 -173 -204 -138 -242 -199 -282 -354 -634 -330 -300 -587 -385 -478 -473 -34 2 -49 -47 &#xA;-39 -28 -25 -15 -40 -20 -60 -35 -80 51 -127 -8 -77 67 -235 -288 -686 -801 -735 -530 -531 -971 -288 -292 -40 -84 -50 -18 &#xA;-16 -70 17 -29 -44 -44 -192 -286 -368 -375 -862 -810 19 -200 -937 -902 -1530 -1112 -2231 -2861 -2534 -2376 -1669 -469 -16 -28 -27 -56 &#xA;-29 -13 16 -51 -12 -324 -604 -674 -1458 -2217 -2089 -2125 -1112 -1622 -1741 -1508 -1028 146 -1515 -1690 -1616 -1239 -3129 -1652 -447 -26 -16 -69 &#xA;-22 -44 -67 -329 -265 -832 -842 -1177 -1989 -2336 -1595 -1000 -346 -226 -258 844 667 52 -1199 -436 882 931 -1474 -1181 -715 -779 -395 -82 &#xA;11 -16 -83 -273 -258 -1159 -1431 -1593 -655 62 186 284 1081 1065 1946 1344 209 546 1295 716 80 233 586 -120 -869 -1945 -884 -23 &#xA;-40 -39 -64 -436 -1155 -1606 -1349 -819 148 85 956 1052 -876 -389 2224 1361 -818 411 1342 612 644 533 111 -554 -1502 -2739 -1270 -34 &#xA;-7 -161 -73 -1056 -2025 -2218 -2023 -958 -846 -855 216 -2268 -894 1564 2789 3425 2547 251 1308 1399 -307 18 699 -885 -2931 -3377 -1841 -210 &#xA;-23 151 0 -1247 -1965 -1708 -1907 -531 -53 -314 -1448 -1933 -429 232 755 1431 1357 35 1943 695 -725 139 377 506 -2184 -3990 -2023 -457 &#xA;11 -413 -893 -1945 -2616 -252 -878 754 -670 135 147 -444 -1929 30 1248 1952 186 1861 130 1577 2000 1262 66 417 -1992 -5189 -1883 -607 &#xA;33 -375 -896 -1532 -1241 -603 -89 793 -1193 427 -1808 -595 -385 -1286 625 1399 874 842 -444 351 1584 668 1925 884 -2316 -5659 -1411 -283 &#xA;-211 -239 -1029 -1749 -1308 -168 -102 -706 -319 -857 -460 -2053 158 1419 2486 913 -2186 -261 29 -1763 579 -491 1514 261 -2472 -6494 -1821 -78 &#xA;-8 -123 -1272 -1490 -328 1159 291 -441 773 2143 -287 -2217 -155 -1689 -1074 -5713 -5213 -3755 -3547 -1718 -1112 -2286 1784 191 -1388 -4416 -2415 -443 &#xA;-65 -270 -1775 -1275 -1212 664 74 236 -11 28 -507 -519 -2169 -2044 -3773 -5052 -4539 -3308 -2386 -1348 -1728 -1482 1527 977 -1743 -4615 -3113 -789 &#xA;-81 188 -2290 -1755 -1588 1317 -1106 -623 513 -131 -993 -2541 -1460 -3201 -3421 -4016 -2313 -1403 -1193 -2361 -275 -403 -1293 9 -2551 -3954 -2429 -483 &#xA;-183 351 -2409 -2875 -2941 -57 526 -286 2079 1172 -966 -582 -1522 -2389 -1769 -1227 22 -339 -1654 -385 -632 -440 -1150 395 -2374 -2729 -1564 -286 &#xA;-194 9 -2116 -4205 -856 1120 2170 933 -433 991 1779 1657 812 452 710 -1362 -1502 -1508 -1248 -370 -1222 -1918 -43 -516 -2352 -2821 -1743 -297 &#xA;-147 19 -2148 -3351 -757 1086 2729 1631 197 1286 990 111 991 -862 -82 -1648 -938 -1234 -742 207 -1445 -913 -1616 -1745 -2270 -1957 -1193 -167 &#xA;19 -104 -1295 -1593 432 472 1109 2117 15 1221 -781 1433 1327 -1264 -959 -46 341 441 -806 -38 230 -645 -762 -1205 -1089 -1178 -489 -44 &#xA;-139 22 -762 -1483 -953 -464 351 1519 1807 1753 1020 48 649 -232 655 904 969 -1398 -1984 -1107 -125 -2247 -635 -1356 -601 -883 -282 -104 &#xA;-66 -52 -397 -2224 -1135 -373 1390 762 120 -715 401 -332 1024 900 946 545 8 -222 -695 142 -844 -1526 -1804 -1387 -1093 -854 -270 -216 &#xA;-15 -471 -294 -552 -1575 -21 2268 1201 806 -989 2380 443 2259 3985 1690 1630 913 -173 1104 159 -1389 -1973 -1376 -1175 -841 -739 -557 -634 &#xA;-124 -142 -542 -359 -1687 -2566 -1970 -1939 -333 782 3522 1964 1594 2604 2590 2709 869 -449 412 -634 -1429 -1686 -464 -230 -106 -148 -133 -185 &#xA;-82 -139 -303 -379 -1341 -2300 -3668 -3843 -4261 -3107 -45 491 1038 1054 1751 2933 1152 -275 -1259 -1207 -883 -552 -525 -265 4 4 4 4 &#xA;-43 -118 -133 -186 -611 -971 -2397 -2909 -3248 -3046 -2139 -1878 -804 -885 -673 -133 -175 -544 -621 -586 -582 -210 -242 -152 4 4 4 4 &#xA;-148 -116 -166 -124 -185 -231 -810 -1254 -1237 -826 -837 -792 -408 -182 -48 -186 -75 -263 -267 -25 22 52 21 28 4 4 4 4 &#xA;-77 -83 -75 -84 -162 -93 -119 -160 -102 -130 -207 -195 -81 -224 -99 -96 -94 -9 -24 -29 -16 -14 4 -10 4 4 4 4 &#xA;" /><Neuron weight="-25 -37 10 -10 -21 -85 5 -9 -38 11 -75 -34 -3 -32 -104 -45 43 -99 -68 -87 -122 -45 -46 -34 3 11 0 3 &#xA;24 23 -17 -70 1 72 30 -40 -61 -120 -39 -45 -69 -8 -104 -15 22 -57 -30 16 40 -97 -105 -63 37 14 11 -4 &#xA;-39 -30 -9 -33 6 -1 8 -33 -61 -73 8 5 -32 -26 -78 -36 -169 15 -14 -312 -237 -235 -114 3 17 48 29 11 &#xA;-17 -32 -14 17 -19 -11 68 -22 -12 -8 -74 -86 -51 -48 5 -48 -27 -19 -147 -387 -347 -409 -197 -148 -13 -24 10 17 &#xA;28 -21 -54 -12 -17 -158 -206 85 -109 -110 100 9 16 187 133 -21 40 -125 -386 -133 -406 -550 42 197 -113 -80 -11 -19 &#xA;-11 -61 40 -97 -350 -129 -475 -365 -437 -874 -478 -277 -490 -576 -283 -487 -772 -1071 -1153 -1405 -1609 529 2122 2342 1 -266 45 3 &#xA;24 2 32 -35 -567 -399 -571 -805 -1274 -932 -181 -142 -217 -566 -664 -624 -855 -1663 -2613 -1559 -11 629 1492 2110 -264 -550 -112 36 &#xA;-38 14 -1 -148 -488 -659 -1410 -1219 -988 -677 -497 -1077 -547 -921 -953 -574 -1075 -1510 -2052 -970 -491 -102 335 958 5 -885 -297 18 &#xA;-294 -204 -308 -618 421 -1355 -2138 -1719 -1339 -1582 -817 -1525 -1165 -692 -683 142 -370 -475 -1098 -1654 -197 -362 46 -815 -318 -1481 -377 -88 &#xA;-133 -297 -440 -406 -839 -2476 -2882 -864 -1478 -1829 -871 -1045 -1029 -797 -941 -1783 -1006 -391 -876 -1436 183 90 -901 176 194 -2551 -468 -24 &#xA;-258 -184 -136 -674 -1524 -1857 -1790 23 -560 -1036 278 123 -1533 -4040 -4112 -3330 -541 -983 -952 -1382 804 670 -1220 458 -907 -3265 -861 -104 &#xA;-74 -243 -617 -2161 -1853 -1765 190 529 -924 -790 680 76 -1381 -3728 -2050 1587 114 -879 -1121 -151 1626 526 -1354 1427 -1289 -2675 -743 -80 &#xA;-59 -142 -282 -1031 -1132 -1402 -1608 -12 -199 706 1641 196 502 -337 1298 851 -884 143 1154 199 1186 -153 -1618 1663 -924 -1818 -1345 -106 &#xA;-129 -128 103 -786 -1229 -805 -2052 -433 816 2045 1755 2007 2502 2523 1990 648 1404 1577 -467 -1243 -1056 -270 -1354 -429 -1857 -2513 -1524 -20 &#xA;-96 -97 -319 -1259 -309 -228 -896 -492 2396 3194 4229 3169 2681 2612 1202 1833 2528 1366 1669 583 -1012 530 -817 -2833 -3062 -3016 -1347 -180 &#xA;-30 -126 -387 -1653 -568 -617 -1422 -3119 -2593 1397 2275 2005 3682 2345 1306 1169 382 1365 741 -201 -2445 -767 -1066 -543 -1711 -2682 -1155 83 &#xA;38 -85 -276 -1094 -55 -144 -1619 -1539 -2226 -188 581 -25 1271 2745 2660 1781 -1296 -2478 -2223 -149 475 -169 -731 -62 -2937 -1744 -556 -73 &#xA;-73 -203 -47 -583 -775 -1293 -1189 99 1408 322 -427 -668 783 1409 92 -2151 -2397 -2051 -1017 -570 948 1559 1014 -193 -1175 -807 -260 -100 &#xA;99 -44 101 -1418 -1967 -1558 -1664 -150 74 -986 -1794 -36 -581 -1655 -2247 -1946 -1951 -474 876 -107 170 742 244 -301 -177 -213 -101 -33 &#xA;-187 -94 232 -1716 -874 -172 -2438 -1234 -2236 -2882 -236 -1227 -2331 -2348 -1959 -2018 -883 -157 593 141 271 721 724 13 -402 -513 -27 -48 &#xA;15 -69 -69 -2064 48 1116 -12 -168 -1411 -1065 -1880 -1473 -1147 -865 -1262 -971 -1025 -796 307 -222 580 1507 1101 330 -745 -187 51 11 &#xA;-179 -45 -177 -1276 -379 1405 748 -565 -493 -1263 -1180 -1172 -679 -890 -987 -319 -456 -422 375 -703 -572 -449 -116 -163 -504 -188 -67 -86 &#xA;-194 -233 -213 -335 -705 1282 717 -374 -782 -979 -820 -433 -521 -852 -815 -330 -767 -713 -202 -934 -1698 -2028 -1449 -1173 -366 -197 -67 -76 &#xA;-110 -247 -87 -208 -503 196 360 -1059 -890 -837 -579 -367 -637 -759 -806 -379 -668 -645 10 -366 -1106 -648 -706 -653 -153 -101 -32 -13 &#xA;-10 -31 19 -82 -167 -713 -1222 -955 -659 -535 -118 -125 -349 -449 -115 -210 -352 -113 722 45 -195 -146 113 -80 4 4 4 4 &#xA;-23 9 8 -26 -200 -524 -775 -410 -254 -287 -3 11 -97 -257 -42 16 -249 -537 8 -40 -173 193 280 -23 4 4 4 4 &#xA;-32 7 -23 11 -38 -139 -115 28 -16 -42 44 66 19 -104 -39 -10 -229 -345 -193 -196 -164 -76 -35 -47 4 4 4 4 &#xA;-19 -64 -24 -29 -34 -39 -35 -34 -9 -22 -4 24 23 -22 7 -31 -40 -17 21 -61 -41 -18 -55 -52 4 4 4 4 &#xA;" /><Neuron weight="56 64 20 -19 47 -6 -40 134 617 313 720 560 436 572 720 493 -185 -23 -234 -172 -275 -260 62 -218 -30 79 -56 -40 &#xA;20 -2 26 -56 9 -109 32 259 284 374 475 430 469 510 303 513 -294 -240 -187 -454 -444 -93 -183 -332 -96 -56 -31 -41 &#xA;-6 -41 -9 85 -162 45 87 223 -198 -103 108 302 686 312 642 595 133 226 -42 112 -22 -253 -285 -151 -16 -46 -54 2 &#xA;46 193 116 -20 -29 273 -133 -326 -751 -1310 -661 -180 -218 -311 186 847 1628 2007 113 -2259 -1530 -1353 418 16 -397 -18 -43 6 &#xA;-14 96 -129 -24 2 99 -418 592 626 -888 -1691 -1738 -2310 -2938 -2240 380 1508 1960 1600 -278 1425 1913 1944 526 -642 -450 -174 -110 &#xA;43 123 49 159 350 -445 -821 1331 1489 -810 -134 -2899 -3275 -3567 -3474 2082 1262 914 1992 932 2331 1129 1633 -589 -738 -982 -295 -71 &#xA;153 7 -16 -222 615 91 37 -423 -1495 -1068 330 -2344 -5525 -5710 -3651 2869 3258 1732 2829 1131 2975 771 1242 -961 -1207 -1550 -667 68 &#xA;56 -124 106 -61 865 156 214 -910 -894 -259 472 -1724 -4312 -5889 -1998 26 506 283 2158 -628 2436 61 -123 -253 -955 -1862 -738 42 &#xA;-224 148 -321 -559 1183 686 1732 1202 -212 -144 -328 -2917 -2693 -2806 -361 -1051 -2105 1309 707 691 1316 -309 1669 -1729 -430 -3081 -880 -16 &#xA;-262 -170 -656 -125 2247 340 337 -953 -1980 -705 1354 -2062 -2238 -1008 -2023 -946 -25 2565 -736 2067 536 1898 1309 958 22 -3325 -1501 -177 &#xA;-166 -296 -1446 -402 1280 525 1474 297 -791 965 2280 -3695 -2829 -1278 -1509 -360 930 16 -889 2254 2085 841 -2008 -1231 679 -2493 -1024 -329 &#xA;-446 -1404 -1127 -639 863 1428 317 457 -18 -302 593 -3779 -5558 -2154 -2329 434 1228 1841 -1372 2584 1831 185 -12 -941 886 -2335 -1051 -421 &#xA;51 -1054 -2963 -1457 412 207 -606 319 -2434 273 1181 -4893 -3059 -250 243 1394 2141 3566 1974 1298 -1778 -1972 512 -1083 7 -2875 -1733 -296 &#xA;-299 -887 -1434 -126 -449 1469 1264 1705 -2317 91 -1679 -5233 -2188 -1019 784 -1683 1085 1435 2573 2905 -1554 -627 -104 -1867 -34 -1773 -1625 -93 &#xA;-251 -215 -1851 -196 393 2025 529 891 -1641 190 -1984 -2886 -5257 -298 -1104 -839 -783 296 3516 2139 700 -963 337 -2488 -597 -524 -1205 -200 &#xA;-265 -263 -1903 -1996 -20 101 140 932 2122 1202 -425 -2447 -3329 -1741 -189 -199 291 1269 -727 -377 -1429 -835 -1649 -1600 -1693 -255 -981 -165 &#xA;-295 -541 -2701 -1238 2311 80 1348 1641 -413 -22 -50 -1191 -2967 -3009 532 407 1613 1188 -59 711 239 897 -866 186 -257 -483 -1203 -103 &#xA;-562 -502 -3535 -1105 109 852 1251 -504 -215 753 -447 -2621 -1729 -517 375 -1288 1268 563 577 805 -1271 -679 -1101 -2906 -1188 -1295 -1023 -189 &#xA;-212 -616 -3433 -1922 -959 355 964 207 -439 -795 -327 694 -1982 -254 -2368 972 417 1696 277 1499 482 1071 -214 -227 -1195 -1717 -701 -81 &#xA;-183 -550 -3344 -1540 -537 -1301 -1096 1413 1009 -295 684 1609 1575 -1460 -591 1950 202 1199 -1727 352 147 2274 1834 968 -100 -1973 -805 -30 &#xA;-364 -482 -1979 -1445 -1286 67 381 -1349 665 -759 -507 242 221 -971 1300 -607 -1735 -1228 891 1084 -1012 -503 1963 96 -1115 -1837 -521 -144 &#xA;-110 -602 -1768 -1272 -1770 -794 1753 3524 3311 480 635 1569 732 -1007 -637 -1430 881 -2775 1076 538 993 2930 2705 470 -4 -1361 -433 -259 &#xA;-517 -407 -1040 -1799 -3263 -2867 132 1986 1328 40 1591 191 -1867 -5186 -1803 -1940 1795 -797 126 2181 1710 3754 2115 -453 -599 -760 -379 -430 &#xA;-299 -173 -879 -1160 -2675 -3602 -3360 -1141 43 740 -694 -791 -4124 -3619 -1190 -3604 -2049 1431 2519 1851 4218 4823 2815 385 -243 -233 -179 -178 &#xA;-47 -79 -91 -499 -1284 -2428 -2335 -2161 -2680 -2585 -230 279 1149 2092 893 -329 708 1861 2647 2475 3384 3235 1862 1702 471 -59 -11 47 &#xA;-86 -69 -113 -67 -128 -364 -521 -900 -1127 -1282 370 1880 2562 3844 3641 3032 5544 5071 3086 2224 1732 1808 952 1082 141 -16 6 17 &#xA;-59 -69 -49 -80 -116 -103 -90 -131 55 -147 514 464 859 2992 1816 2690 3564 2241 1283 932 500 643 304 288 4 4 37 11 &#xA;-42 -76 -62 -62 -62 -95 -67 -45 102 90 230 185 383 1642 214 298 1002 660 759 405 236 514 378 259 10 63 21 7 &#xA;" /><Neuron weight="61 -131 45 68 73 141 -153 -42 128 273 64 362 77 77 44 238 149 312 92 180 338 257 17 60 -2 14 39 122 &#xA;66 8 4 -71 -172 155 89 -67 -142 -365 13 34 45 -182 57 -182 258 139 568 275 -112 176 53 -144 147 73 -1 42 &#xA;30 -146 91 -23 -74 99 -184 -939 -1537 -284 -166 -220 -65 -73 -147 -118 16 132 101 -138 158 596 541 410 204 65 -10 39 &#xA;-102 15 32 83 104 298 1003 204 -247 456 1059 581 -624 -964 -969 -330 497 1853 2952 2369 2401 1165 1285 1826 1384 294 125 61 &#xA;99 -138 16 -52 24 1553 2130 1549 1454 1361 2037 1179 -4 -1932 -1284 -97 1544 2372 2237 2368 1426 1832 1347 2099 1429 252 -9 17 &#xA;77 171 -21 82 1194 2402 1342 125 -260 -593 657 1034 -1413 -1721 -1547 -1635 -1232 -113 -95 1232 -53 -877 2056 3213 1533 392 -120 -82 &#xA;-166 -74 38 -185 395 49 1078 871 1789 1009 0 -1346 -2578 -1789 -2904 -3081 -1065 794 135 976 356 -203 844 2685 2697 1259 -137 -71 &#xA;14 -58 -92 810 647 -1119 382 1042 906 2013 -750 -3694 -2466 -2531 -4102 -3515 -905 984 73 592 972 -1440 -428 195 1568 573 -147 103 &#xA;-131 -521 -231 776 1251 -2701 -121 588 -571 -332 -1942 -3585 -1595 1320 62 -2832 -3044 -1340 143 266 -1702 -700 1336 -836 2102 1806 -1063 -211 &#xA;-888 -371 -290 134 644 -502 2372 -2244 -1560 -949 -3371 -3544 112 -1660 -1322 147 -2070 -3406 -2019 -257 -393 -1481 947 684 910 1613 -1636 -416 &#xA;-425 -640 -732 1553 1386 -1543 155 -1549 -1560 -942 -4640 -3331 -570 -516 43 -481 -2090 -2417 -3658 -1709 -77 -105 -1098 -209 454 2056 -1183 -731 &#xA;-161 -344 -666 440 363 -1834 -1165 -1334 -2865 -3094 -5297 -2865 -1670 121 -162 -519 -291 -4657 -4002 -3129 -1207 -1068 468 632 1373 -588 -1776 -811 &#xA;-664 -665 -787 876 2405 -445 1284 -798 707 -1715 -1088 -868 270 1420 1311 1648 1117 -2809 -5221 -1999 -489 -1789 -185 -181 365 -1573 -2825 -462 &#xA;-531 -507 -758 618 2038 1407 739 540 -542 -1538 461 -62 569 -1318 185 1649 928 -2776 -5044 -3044 -190 -309 -1563 126 891 -790 -4280 -591 &#xA;-662 -102 -812 -62 977 -1201 -194 1173 858 129 1654 821 587 -2648 -1632 561 -2673 -3893 -2906 -1458 1363 728 -2712 -1651 188 -1934 -4651 -566 &#xA;-629 -293 -593 -672 160 -1976 -74 370 435 -1324 2028 5109 1776 -874 -777 1494 -3285 -2880 -764 998 436 225 -3045 -1794 -574 -2166 -4809 -1052 &#xA;-42 -665 -528 154 -552 -89 2678 -298 934 -2225 1922 317 2017 825 1804 -218 -3243 -2225 1673 895 -231 -794 1365 -3405 692 -2704 -3120 -642 &#xA;-452 -595 -749 2091 -595 -2484 427 -135 1061 -27 831 2477 -215 -1278 -547 -1408 -2250 -803 409 1823 -128 -1070 -651 -761 -492 -1734 -1761 -364 &#xA;-655 -586 -2019 2938 1439 -161 273 1933 1631 629 3 1709 498 303 -2250 124 3020 -303 102 1441 2621 1515 2801 867 -2622 -3171 -1836 -376 &#xA;-232 -413 -1013 2006 -342 -1041 -616 -82 608 673 -925 -1239 -1102 -1922 -2710 1299 869 1103 1133 1054 -1266 594 -443 233 -2469 -2370 -1641 -363 &#xA;-90 -738 -920 2028 28 -2300 -79 1427 -765 1349 943 -805 -2242 -2113 -342 577 1720 -96 -2306 466 325 581 916 -155 -1918 -1611 -628 -261 &#xA;-422 -655 101 103 -535 -2913 -879 -2623 -53 2133 709 -2403 -4958 -4353 1989 2116 1908 1186 1895 2091 1187 469 1170 138 -1310 -1293 -796 -184 &#xA;-294 -354 -623 -608 -1009 -3486 -2220 -2832 -493 2291 -252 -1851 -3816 -4393 -2300 924 3628 3685 1923 66 -1138 -333 1071 -1105 -787 -538 -235 -197 &#xA;-287 -413 -444 -483 -2203 -3494 -2845 -2994 -4547 -3400 -1415 -1618 -3623 -2357 -1160 246 1044 850 -372 -2508 -2049 -3370 -1746 -1353 -744 -413 17 -102 &#xA;-16 -89 -70 -132 -813 -1230 -1077 -1935 -4547 -3976 -2530 -1001 -794 -911 -1073 -729 -1602 -2190 -2149 -2547 -2598 -1812 -1233 -914 -75 -30 4 4 &#xA;-41 -114 -102 -1 -138 -216 -468 -1075 -1458 -1666 -1158 -342 184 21 -221 -385 -978 -1664 -1947 -1265 -1083 -507 -419 -352 -25 -2 4 4 &#xA;-74 1 -66 -43 -70 -137 -181 -140 -177 -161 -151 -99 -121 -166 -61 17 -262 -419 -508 -333 -213 -289 -187 -117 4 4 4 -1 &#xA;-139 -33 -105 -107 -10 -58 -146 -71 -161 -128 -90 -57 -58 -144 -114 -98 -167 -197 -206 -168 -154 -213 -280 -176 4 4 -2 -8 &#xA;" /><Neuron weight="-3 5 35 106 28 61 -23 61 -105 -150 -260 -37 -57 -155 -336 -15 20 -118 -43 -202 -136 -163 -34 -93 -41 -32 0 -39 &#xA;92 24 84 21 13 1 -46 2 -112 -380 -201 -134 -514 -466 -76 -281 29 -298 -74 -154 220 -125 -432 -124 20 -20 -5 35 &#xA;87 -40 -19 75 164 103 175 232 -50 -386 -766 -963 -1218 -1100 -657 -245 -353 -314 -317 -880 -405 8 -45 -73 -16 -58 -33 -13 &#xA;8 50 107 -10 1 149 240 249 -500 -1087 -1965 -1373 -1916 -1892 -1069 -711 -1909 -2877 -1811 -589 -739 -498 -307 -140 -27 -45 -1 -9 &#xA;17 39 68 5 169 114 613 -32 -797 -953 -876 -1098 -1694 39 1590 1115 -1730 -3312 -2577 -1268 -958 -1278 -870 -246 -147 170 -35 37 &#xA;12 -58 -12 -39 152 152 763 588 -68 -626 -1763 -248 -844 417 2924 2215 536 -24 -1113 -708 -1854 -1318 -877 -714 11 308 351 10 &#xA;25 -243 -256 -369 -666 -211 696 318 -82 -119 -137 348 -830 357 1109 -557 -605 -1183 -2386 -520 -1147 -2979 -1848 -1155 -32 -1293 -363 -75 &#xA;-4 -421 -920 -982 -1623 -729 1512 1801 572 845 -765 -928 -2018 1108 2554 866 2469 966 -500 -171 -1809 -2172 -1228 -753 -1440 -2561 -1280 14 &#xA;304 -546 -1126 -1948 -2755 -347 921 -684 -1378 -1816 -1270 -1308 2789 2133 539 1148 2514 1902 1588 -731 -2178 -2056 -1712 276 33 -2784 -2049 188 &#xA;703 -158 -1688 -2364 -2767 -631 1228 -879 -254 -1373 706 2128 173 1394 1860 717 2972 604 1930 -1807 -1825 -1919 -2274 -772 64 -2149 -2897 -148 &#xA;611 -425 -2248 -2367 -2838 -1306 256 -463 -1147 -1214 -69 823 1216 2384 -484 1985 228 -1429 -1485 -1370 -2574 -685 -932 -125 17 -1519 -2910 -321 &#xA;437 165 -2071 -3066 -2855 -1706 -2321 -1460 -758 -60 -809 -101 3078 3686 2140 1297 -366 -2014 -340 478 -2169 -619 -432 331 151 -2557 -3224 97 &#xA;479 -786 -3150 -4982 -3284 -1347 -2639 -2368 14 -1390 531 1302 3785 3869 1405 1 -594 -485 1767 -729 -2406 -1593 -157 -499 -1680 -3784 -3727 -90 &#xA;400 -581 -2580 -4889 -1758 -2817 -2277 -430 -916 -586 -564 -3811 -387 -408 -2169 -843 -853 2135 2092 -2030 -4148 -1892 -1631 -1553 -1299 -2538 -2964 -139 &#xA;601 341 22 -3968 -783 561 -2527 -3869 -3083 -3240 -3623 -3656 -2943 13 557 608 1087 1243 2528 676 -348 -695 -672 -1062 -483 -2185 -3083 -483 &#xA;427 -376 -1089 -4648 -3858 1039 -2584 -796 -1973 -1433 -139 455 1132 -400 -318 1780 2957 -460 -40 -442 -824 -277 711 683 -762 -3958 -3506 -321 &#xA;280 -258 -1346 -4924 -3415 622 -2123 -3099 -2832 -1363 -293 2289 1574 1397 2673 2062 1645 1208 -1094 -405 -986 -493 632 -162 -1525 -4581 -4393 -468 &#xA;785 398 -1677 -3794 -2971 -50 -1895 -1297 -2044 -522 1521 748 2295 1228 793 1149 1547 1762 -3161 -1943 -1709 854 1604 425 -907 -4092 -3902 -56 &#xA;517 312 -1256 -2685 -2981 -279 -1978 -1885 -2169 -660 -2053 -1080 1144 632 29 54 2745 600 -1816 -997 -1430 -161 548 2011 -651 -3432 -2356 152 &#xA;458 279 -435 -1571 -709 -672 -1302 -524 -2015 -1570 -191 1545 -1675 -2258 2608 1931 1582 -1765 -1424 -2354 -2530 -442 490 635 -1042 -3609 -1930 -15 &#xA;682 74 -281 -614 423 208 289 206 -657 -291 -52 -1381 -939 -643 1981 -362 2082 554 -462 -1436 -1273 -269 -346 1965 -394 -2592 -1071 28 &#xA;311 266 -148 -150 344 133 483 417 -1101 -589 1436 -741 -645 263 -121 -1177 -675 -514 181 -1344 -1072 -937 439 1434 -267 -2120 -965 -8 &#xA;330 477 633 148 373 1440 1859 1906 -82 -387 10 -1136 -487 733 33 1409 -566 72 -2271 -3229 -1901 -263 327 191 -145 -635 -366 -310 &#xA;569 241 416 383 217 2277 1756 2051 190 611 -1034 -1420 -828 -1812 -1551 862 -1775 -1410 -930 -2203 -1745 -681 -197 -505 -482 -161 61 74 &#xA;44 -5 67 -337 115 -714 -385 -262 -411 -1574 -1829 -1927 -2022 -2806 -2046 -1900 -3190 -1749 -803 -609 -1299 -1076 -594 -239 -308 -175 -17 4 &#xA;-73 -113 79 -70 -627 -1215 -684 -374 -1752 -1625 -1395 -1748 -1314 -736 -763 -608 -2255 -1563 -1221 -643 -608 -506 -158 24 -21 -10 5 -4 &#xA;37 0 12 -193 -156 -392 -145 -135 -822 -709 -561 -639 -522 -920 -424 314 -736 -207 -246 -84 7 -45 -70 -78 4 5 0 0 &#xA;29 -81 -3 72 22 -88 -81 -35 -21 4 -40 -70 -173 -717 -113 -20 62 -19 -161 -63 -64 -91 -136 8 1 4 0 -8 &#xA;" /><Neuron weight="-69 -66 -84 -41 -108 -230 -163 -187 -237 146 -391 -139 -247 -48 77 -50 692 826 673 1251 955 1117 876 1112 -16 -73 25 -49 &#xA;-200 -235 -216 -53 83 -86 29 -176 -355 -179 -155 219 -293 -693 -622 -354 869 1231 1169 1051 793 865 1056 731 20 -63 38 35 &#xA;-27 -54 -34 -319 -239 -319 -263 -229 -354 -738 -253 -348 -484 -450 -433 -187 1368 1453 1099 1302 900 501 754 836 37 -32 -63 -70 &#xA;24 -111 -119 -204 -3 13 -234 -709 -1798 -1368 -742 -1236 -214 -383 -301 -480 680 741 396 78 -17 -904 224 1030 212 262 -33 -26 &#xA;-177 -68 -17 -109 -148 -848 -1543 -2630 -3883 -3126 -1940 -1512 -1335 179 -474 315 1006 2365 2926 956 34 284 519 1763 -248 -237 -86 28 &#xA;25 -106 -123 -279 -1102 -1836 -1446 -1831 -1643 -1892 -1171 -550 799 789 -1415 -2324 -755 2771 2238 -1255 -581 1702 -1211 1315 -447 -767 -184 78 &#xA;-31 -280 -155 -155 -1512 -1804 -1811 -556 -2045 -2801 -1240 312 1 -500 -1144 -1404 684 3560 2963 -1115 629 1461 -1028 -380 -869 -878 -443 59 &#xA;48 -134 19 -676 -1545 -2125 -2955 -1025 -2901 702 1371 1053 1098 1120 -735 -531 -2356 -1380 826 782 558 555 91 -1412 103 -225 -784 -11 &#xA;-222 -294 -358 -796 -2223 -1939 -1418 691 -1324 -628 224 768 827 2071 1795 1907 -3240 -3058 -1422 1435 711 24 -679 1003 -2027 -506 -1299 55 &#xA;-528 -305 -628 -774 -1442 -943 -1679 -62 450 1020 3197 595 -1156 -316 -97 1953 132 -1993 -512 -1650 1080 2473 -1068 -504 498 -1214 -2319 -583 &#xA;-455 -578 -541 -988 -480 -1249 -1003 240 1900 1757 3107 -1125 4089 1556 2445 -1675 1070 -4639 -3399 -2480 1914 1958 -970 -1866 -494 -907 -1840 -346 &#xA;-151 -759 -1019 -2090 254 74 615 1458 1750 1278 2310 1158 178 2230 594 -398 -4063 -5337 -803 -227 2596 779 4832 -1590 -1100 -172 -2006 48 &#xA;-302 -372 -1306 -1599 -85 -395 164 1004 -2008 753 2429 527 695 1800 483 1246 -258 -6395 616 1634 -803 -290 3631 818 149 415 -1726 -523 &#xA;133 -476 -2198 228 -1808 -3274 1789 -690 -1884 -1083 1601 3129 1214 1581 -931 -2426 530 -5115 -602 -454 -430 927 780 334 -48 756 -1375 -908 &#xA;-353 -792 -1547 -138 -1623 -1489 641 -409 -1615 675 -1268 348 1391 -1368 -1661 -1242 -2655 -4776 19 -600 -1908 -102 149 -244 678 -78 -1221 -1063 &#xA;25 -560 -1323 -2744 -130 -540 -737 -2575 -3226 -919 -719 -572 1166 -1214 -1475 -1346 136 2379 -632 1006 -3473 -1209 1108 -525 1274 -1016 -926 -350 &#xA;-57 73 -1807 -1167 -771 -1296 -1604 -1510 -140 -2826 -3511 1466 -970 -3863 -1389 -1663 -33 705 310 -2334 -465 27 1082 656 -350 -289 -698 -210 &#xA;-192 16 -2929 -1609 -230 1531 -406 -1659 1830 37 -2109 -1706 -1909 -212 -536 -1991 -455 737 2094 -1754 105 1140 291 1036 1273 -20 -789 -55 &#xA;71 -18 -1166 -279 -462 -1104 308 757 -416 -1325 -2761 -1893 -865 -1969 -2600 277 -408 999 -262 459 9 -117 1942 -2110 981 -2810 -2858 -387 &#xA;-365 -512 -1003 -1291 -1495 1256 -645 -1996 -564 -509 -1519 -679 -2285 -1611 21 -885 1403 389 -725 334 623 -40 1534 -69 -532 -2499 -1887 -258 &#xA;-131 -291 -338 -1072 -746 2221 -200 549 2243 164 -2486 -4547 -1015 -1453 -1674 -1232 -1591 686 3602 325 -2128 27 4431 1797 -1777 -870 -476 -361 &#xA;-337 -514 136 -857 206 -1326 -625 966 662 1938 -1934 -3690 -4607 -2531 -2274 -2934 -2615 -5 1762 -281 -1686 2677 1220 184 -2002 -14 -203 -282 &#xA;-396 -173 -93 -1685 297 1853 3268 1375 -669 -943 -1763 -3809 -7180 -6634 -2964 -1709 200 -270 -1026 -1333 580 3061 1881 712 -506 191 -146 -287 &#xA;-173 347 -262 -1235 2120 2576 2828 2974 1741 375 1640 -2316 -9481 -9067 -4166 -1052 982 946 84 223 75 888 1068 724 177 542 -108 -119 &#xA;120 253 134 -556 770 1510 3492 3788 4340 6777 7666 2172 -7099 -6107 -2392 -113 893 1217 508 -259 -494 142 523 254 470 287 63 4 &#xA;95 266 172 54 605 615 2257 3193 5731 7315 7592 7392 1943 704 101 436 -469 -739 -990 -726 -206 166 17 -213 5 -4 -4 12 &#xA;112 171 175 -28 503 318 419 518 1419 2252 3012 3918 1862 1109 111 176 -512 -294 -477 -173 6 -67 23 -9 2 12 7 4 &#xA;152 146 163 143 128 167 162 149 819 549 617 384 369 594 253 207 -308 -162 -114 2 -92 -153 -15 -90 14 20 5 3 &#xA;" /><Neuron weight="-45 -50 -15 -42 -73 -119 -95 -30 -47 -207 -315 -4 1 -314 -220 -142 -303 -404 -400 -205 -137 -331 -447 -80 -4 -10 4 -7 &#xA;-11 -67 -78 -69 -51 -32 -45 -88 -129 -145 -65 -284 -361 -225 -64 -479 -167 -91 -480 -407 -336 -139 -200 -62 0 3 3 -3 &#xA;-58 12 -12 -18 -14 -52 2 -15 -324 -158 -102 -163 -419 -350 -422 -306 -377 -223 -178 -422 -334 -264 -168 -263 -9 -3 -11 -1 &#xA;-61 -131 -61 13 -318 -674 -430 -464 -373 -285 -646 -610 -703 -646 -646 -624 -751 -664 -689 -819 -739 -774 -384 -282 -96 -10 4 4 &#xA;49 -154 -12 129 -57 -210 -231 -459 -797 -433 -1255 -805 -1428 -2560 -2393 -2007 -1897 -1439 -1043 -1185 -1827 -1501 -904 -542 -213 -8 4 -2 &#xA;-82 1 -89 96 -31 -243 -945 -1066 -667 -737 -388 378 -580 -1473 -1583 -1959 -1535 -922 -1209 -1694 -2701 -2226 -1226 -825 -262 4 -7 -5 &#xA;-4 21 68 403 -70 -780 -2072 -1945 -1281 -2126 -1237 74 470 1678 868 90 154 680 523 23 -833 -2027 -2200 -1085 -260 -16 4 4 &#xA;-86 -14 471 1151 -129 -1325 -1311 -797 -2707 -2195 -1223 380 2430 2923 1573 451 1362 1385 1732 -193 665 1187 -548 -1040 -344 -181 -28 4 &#xA;22 326 1052 1245 -22 -1355 -1127 207 -1527 -686 46 60 279 612 2409 -82 -1695 1541 1796 1116 -1418 -597 -694 -2417 -773 -390 -74 -97 &#xA;209 454 1587 -93 -816 -2809 -2687 -2553 -2026 -1614 -1630 -900 -575 2045 3421 1709 402 489 786 280 132 493 -245 -2647 -700 -389 -341 -102 &#xA;-221 721 1867 -177 -1754 -2974 -2928 -818 -349 -507 -615 -573 316 2210 3596 2245 609 1012 -99 1995 2508 862 183 -2433 -1598 -588 -245 -89 &#xA;-75 488 1416 168 -1380 -2957 -2186 350 -1117 -1796 -352 -1282 1767 1513 1885 2948 3379 527 1445 3325 2888 1239 -741 -2761 -1872 -1018 -167 -105 &#xA;-5 732 1340 -978 -2201 -783 -1697 -2370 -2618 -1272 -2341 -807 2136 2764 358 750 -81 -170 3231 2372 2463 2633 -1215 -2093 -1616 -1357 -178 -117 &#xA;-120 157 -80 -1167 -1767 -3372 -2379 -331 -754 -2037 -114 1255 2835 -1182 -923 -822 -354 1142 1408 1036 1364 3001 -1729 -715 -1704 -1089 -329 -114 &#xA;-135 -358 17 -24 -2641 -1821 -838 -746 -3234 -1589 -2325 -1668 -106 729 1045 1777 1155 2055 -300 2833 2447 3920 -476 -179 -1661 -790 -165 -96 &#xA;190 -93 791 1766 -2063 -2901 -228 -2528 -792 -3648 -283 -763 -361 2651 -55 199 736 426 -693 943 409 872 378 -911 -1393 -368 -86 -165 &#xA;-180 -58 1987 -1049 -2081 -2341 -1681 -3520 -2313 -3867 -382 -1146 -1843 -1121 650 -45 -161 -1369 -791 3050 -345 867 1105 -3220 -2178 -818 -129 -127 &#xA;-138 -62 689 1284 -1043 -2271 -1971 -3377 -3401 -4639 -3926 -1953 -1070 -43 -932 -2313 -1724 509 -338 923 509 1332 694 -2381 -1888 -586 -92 -153 &#xA;67 -591 730 2389 -1794 -1295 -1378 -2433 -4070 -4956 -3164 -979 -816 -298 439 -989 1127 1707 1459 852 1667 735 -1854 -1969 -2250 -512 -109 -127 &#xA;-437 -41 1321 1190 272 -453 -800 -1583 -5334 -2374 -1690 -1203 -1266 1820 345 112 1849 572 779 726 2274 632 -307 -1310 -2334 -496 -131 -112 &#xA;-69 -102 806 1225 1130 -1349 -1276 -1887 -4694 -1271 191 -1642 523 2283 1558 1117 165 439 -1569 -448 197 -1192 -816 -1901 -2173 -447 -116 -92 &#xA;-123 -67 950 226 330 -498 -834 -1709 -1643 -1082 -935 -161 2283 1106 768 297 -1421 -1427 106 -64 -873 -1741 -933 -1722 -1213 -468 -332 -128 &#xA;-481 -57 984 1820 1996 644 -2174 -3382 -5266 -3954 -2980 -1720 930 2967 2657 2120 181 1315 832 150 -1268 -2007 -1184 -792 -551 -266 -273 -87 &#xA;-19 -295 188 2240 2592 1594 -1898 -3649 -3884 -3986 -2222 851 2498 2104 2009 2314 644 1540 1128 -1381 -1992 -1670 -1073 -507 -187 -49 -27 -99 &#xA;-44 -29 -264 916 -7 -1108 -1591 -1192 -3144 -3230 -1812 -1083 716 710 1081 433 433 4 -1315 -2227 -2082 -1209 -678 -294 4 4 4 4 &#xA;26 -69 -238 -355 -611 -784 -414 -646 -1211 -1517 -1805 -3082 -1762 -1758 -1121 -374 -1094 -1206 -1457 -2117 -1226 -297 -177 -141 4 4 4 4 &#xA;-101 16 -26 168 -220 -395 -554 -507 -358 -355 -829 -2081 -1608 -1363 -794 -1269 -1236 -1057 -419 -736 -592 -208 -80 -64 4 4 4 4 &#xA;-26 25 -63 32 19 -49 -69 -45 -114 -147 -294 -317 -256 -424 -163 -304 -290 -135 -52 -120 -48 -94 -81 -25 4 4 4 4 &#xA;" /><Neuron weight="-32 108 -4 -62 78 -14 -48 103 -62 184 208 63 16 -30 130 -10 -19 57 -10 144 -80 3 155 -17 30 49 24 71 &#xA;91 23 70 29 14 5 84 -21 328 652 182 288 662 244 104 183 49 24 -118 -29 49 -130 -251 -5 83 8 38 -42 &#xA;33 2 15 78 -34 57 177 230 491 1104 1413 2254 2051 1502 873 49 19 122 166 33 -23 -427 -569 -304 -244 -98 65 82 &#xA;83 54 61 68 49 -71 -353 -93 1199 2326 1135 2053 2454 2113 616 55 211 169 96 -805 -1276 -1161 -678 -520 -197 -28 64 -99 &#xA;72 2 -1 0 83 9 -349 40 1082 2588 2357 850 368 1240 771 -385 -559 131 -10 -321 -1772 -1820 -851 -41 -36 -516 -125 -1 &#xA;41 25 69 119 -78 198 124 -391 495 1570 1033 -146 -183 -143 321 777 509 216 -70 -1322 -2112 -2228 -936 234 1283 -487 -785 86 &#xA;66 -6 188 82 -369 -169 206 -479 1174 826 -329 316 -358 -123 -1081 -685 -108 -1145 -2154 -2979 -4131 -3028 -156 2004 1839 -481 -347 48 &#xA;15 82 66 -305 -731 -824 62 984 2498 963 -155 514 76 41 -1760 -1427 -1157 -2565 -1427 -2245 -4925 -2499 1163 2690 462 123 716 85 &#xA;-69 -161 49 -656 -1310 469 413 972 2651 386 -1353 -3339 504 -146 -1374 -1284 -1781 -1500 -1305 -2563 -2854 -1431 -737 -1104 -782 1728 1109 215 &#xA;93 277 -247 -227 -918 310 1480 1363 1643 -636 228 691 -836 -148 -171 -1564 -1143 -436 -1998 -2736 -2062 -623 -1228 -3032 -712 0 724 36 &#xA;-150 3 -150 -229 -897 -121 2084 3049 1693 -292 1047 1774 -1381 -831 -1221 -959 -787 -2489 -1423 -2544 -1725 -360 -2207 -3312 112 -757 578 226 &#xA;249 -259 -199 -536 -1326 575 1029 623 1548 377 -1311 807 -952 -2896 -2033 -2073 -2052 -1624 1180 126 -631 1419 -639 -2605 -278 1515 625 -367 &#xA;-71 -399 -247 -467 -1888 -694 1509 -221 2931 2518 -1870 93 -2263 -3172 -1751 -3000 -1785 -1137 -193 1491 328 1636 -333 -697 -619 2209 -18 -225 &#xA;61 -170 -351 -413 -1536 -1712 2407 -426 2388 1961 808 1272 -4203 -4637 -2213 -2449 -2083 -1145 -316 -1522 -640 -1941 -1269 -1546 612 608 947 1065 &#xA;112 236 -328 -629 -1791 -885 704 -2353 335 2388 3663 1280 -1619 -2182 -318 -2385 -2439 432 -1285 -864 -519 -710 38 -1155 131 1210 1522 640 &#xA;-184 45 -107 -384 -2020 -1508 2322 -2261 1150 954 1915 801 1082 68 26 -831 -426 -1197 -1103 -956 -1426 311 -314 -1740 -121 1491 1063 512 &#xA;48 -40 144 -516 -1800 -1875 501 90 205 -320 2126 1247 1264 -1162 2352 513 -899 -84 -499 -876 -3168 -957 -1545 -1503 -1314 1693 -54 250 &#xA;77 -233 -226 -463 -1354 -2665 1019 580 -1373 2767 1167 -1046 -291 -256 1001 3322 2964 1007 -1832 -2249 -3429 -2306 -2150 -1285 -653 1498 686 484 &#xA;-131 -207 -82 -70 -1776 -3933 -874 -197 224 548 900 644 34 -335 1558 1963 302 2416 -49 -2328 -3121 -2055 -1508 -1954 -1413 524 2298 368 &#xA;109 55 238 -179 -945 -4018 -458 1339 872 709 1573 649 -3618 -1581 2090 1046 685 1156 -1619 -1593 -1088 -1410 -508 -195 -457 503 2420 310 &#xA;-58 -232 -90 -93 -469 -3768 -1622 -29 1662 1793 1210 -1329 -625 628 1098 523 62 1435 -2112 -1422 -2631 -2090 -2059 -2263 -1778 -611 652 388 &#xA;-52 -124 -53 218 -647 -2083 -1609 -481 -730 -25 765 -422 -1669 1204 357 921 1315 704 -1810 -1866 -1945 -1831 -2283 -3340 -2270 -937 59 -100 &#xA;-57 -85 -26 -105 -805 -1254 -895 291 552 367 1293 -173 -757 -1590 -259 1579 141 -54 -1855 -3198 -1652 -1370 -1376 -1751 -1823 -1015 257 -214 &#xA;-124 -88 -143 -126 -66 -730 -842 394 -657 -1830 -859 -1042 -1612 -1456 -433 499 -943 -907 -2159 -1935 -873 -841 -279 -1281 -1478 -537 44 16 &#xA;3 -24 -17 -22 -15 -356 -776 -732 -1258 -1546 -1041 -1182 -279 -522 -1698 -1666 -981 -958 -1852 -1847 -678 -235 -4 -51 -313 -159 -11 -12 &#xA;-12 -38 -21 -32 -26 -243 -511 -903 -644 -635 -416 -497 361 -256 -723 -296 -301 -276 -588 -751 -242 -106 -41 -45 -40 -19 4 -4 &#xA;-24 -1 -22 0 -50 -69 -45 -90 -300 -31 -143 13 412 39 -119 -57 -107 -94 -11 -164 -83 -37 -26 13 4 4 -8 -12 &#xA;-9 14 -24 -2 -15 -24 -30 -44 -108 -31 -20 107 213 32 -52 -44 -31 -38 -43 -40 16 3 3 -32 -7 -18 -12 0 &#xA;" /><Neuron weight="70 -155 -91 -89 20 -126 -73 -38 -161 -186 -488 -507 -291 -521 -146 -276 -522 -779 -856 -878 -778 -872 -921 -360 -32 -35 -126 -108 &#xA;-100 -55 -66 -91 -93 -162 -213 -178 -379 -278 -626 -106 -265 -109 -274 -446 -1054 -943 -1010 -720 -701 -529 -755 -917 -62 -151 -9 6 &#xA;-164 -108 -88 -200 -270 -133 54 -83 -718 -1078 -1018 -948 -682 -384 -387 -183 -453 -529 -692 -872 -975 -1109 -742 -791 55 -92 -113 -36 &#xA;-26 -104 -114 -53 -83 -209 -625 -1177 -2064 -1559 -1768 -1273 -566 -514 -633 -712 -806 -975 -1340 -2131 -2698 -2202 -1059 -211 -316 -145 -58 -104 &#xA;-144 -193 -126 -100 -300 -434 -811 -1470 -1196 -1160 -457 -723 -2112 -1550 -1889 -1302 -1008 -1515 -2377 -2620 -4168 -2909 -1440 -2540 -1654 -665 -222 -139 &#xA;-134 -120 -90 -137 -702 -698 -932 -1043 109 1358 -1059 -490 727 -286 -522 -1812 -2821 -3876 -2674 -1525 -1438 -1752 176 -3357 -3147 -1514 -157 -252 &#xA;-66 -96 -374 -349 -528 -1083 -803 -701 -293 1662 3631 3625 3220 -1613 -3497 -3937 -2629 -3408 -2191 -1353 -1549 -1152 46 -4180 -3804 -2923 -795 -88 &#xA;-115 -115 -237 -649 -738 -792 -1199 -200 878 424 2327 1082 1475 301 -2411 -4105 -370 1138 159 1261 4165 2246 416 -1431 -167 -2954 -1604 -130 &#xA;-575 -194 -379 -1216 -2230 -1806 -1372 1527 -1874 -260 3012 3241 124 -2492 -5076 -1728 733 1355 1346 1278 1090 -25 519 -896 526 -3845 -2444 -1067 &#xA;-536 -391 -1044 -561 -1961 134 -1440 -270 1697 -399 -553 3258 2149 -1699 -3616 -1652 -1419 789 2723 2545 -265 -1394 -663 -186 766 -5670 -3512 -789 &#xA;-700 -351 -958 -1504 -1233 -237 241 -525 -193 1024 2137 1311 -419 87 -2613 1416 656 482 1081 578 -690 -3686 967 305 602 -5629 -3624 -1241 &#xA;-295 -333 -1213 -2304 -1870 -1035 -13 -2307 -1428 831 1466 3241 604 -356 3337 997 -668 367 2554 -1839 -4098 -1623 -1244 -423 626 -4197 -3259 -923 &#xA;-648 -809 -1002 -2038 -413 -1786 383 394 1341 -1974 1850 1190 628 2642 2724 896 1490 2995 1811 264 1244 -849 1451 715 -734 -4849 -3748 -1374 &#xA;-695 -484 -1397 -2694 214 960 -445 -1190 -562 -1610 -1987 1298 2495 137 772 2950 -386 -429 -183 -3404 -1131 271 1816 1708 -537 -3622 -3827 -1958 &#xA;-862 -520 -2684 -5683 -1042 2284 -1063 -1581 868 -3057 -5196 104 863 -3120 -610 1500 -2484 794 -2023 -2748 -1686 -79 -420 -1384 -583 -2053 -3560 -1140 &#xA;-523 -558 -690 -3282 -172 1620 1388 966 555 -2144 -2656 1634 2057 3567 623 226 2261 -793 764 -443 2010 -2326 1903 1411 837 -2659 -3229 -684 &#xA;-753 -1280 -1991 -5880 -1013 702 2304 -946 335 -1347 -3166 -1209 929 -1797 274 3237 -352 -2289 -1026 -127 607 -1145 -278 293 2529 -4484 -2523 -161 &#xA;-471 -935 -2220 -6003 -3053 1516 1713 -1088 -1707 -104 -1381 942 183 844 -704 -1548 -2295 -3637 -563 -328 -1287 465 530 2623 1039 -4267 -2189 -371 &#xA;-877 -999 -1610 -3548 -3912 -46 -930 -1457 88 -1606 580 80 2034 1713 -1526 -3868 -2431 -2083 938 -343 -1094 -841 269 3631 1536 -3688 -2017 -499 &#xA;-497 -916 -1330 -3142 -3263 885 -146 -1782 -502 -1353 307 -1038 2207 -268 -2202 -2200 844 -721 -965 -1106 747 -1577 -456 16 486 -2024 -988 -735 &#xA;-885 -871 -1248 -2510 -1620 785 1084 -1131 2621 -194 -78 1771 1970 2353 -2886 -4748 -2262 -478 -561 -2086 -831 549 83 1100 -779 -731 -620 -658 &#xA;-705 -1030 -902 -1328 -786 333 158 1296 31 2326 3796 2763 2289 944 -1717 -2467 75 339 -1193 -1683 -40 -672 1791 1105 -2663 -930 -351 -363 &#xA;-541 -593 -1501 -1068 -2733 -1337 603 1990 336 1242 2513 957 685 -624 -3654 -1810 -3099 761 1481 2014 2103 2147 268 -349 -1881 -777 -283 -200 &#xA;-935 -855 -922 -1282 -3483 -2182 -1250 2202 2194 -917 -185 508 747 -1304 -4365 -3444 -913 -311 -2543 -562 -609 -1480 -1095 -725 -1033 -1055 -462 -48 &#xA;47 -173 -53 -256 -589 -1211 -2828 -2498 -1396 -1870 -907 1104 1004 -803 -1389 -1970 -1507 -2235 -4521 -3937 -2491 -1967 -1349 -410 -185 -80 -23 -4 &#xA;-88 -354 29 -87 -176 131 -1300 -1875 -3416 -1952 -230 -469 -232 -712 -617 -1040 -2116 -1961 -2919 -2954 -1682 -989 -858 -199 -41 -24 -12 0 &#xA;-2 -140 -78 26 -225 -188 5 147 20 199 179 -544 -144 -854 -541 -627 -815 -939 -573 -549 -342 -272 -253 -323 6 -4 -4 -5 &#xA;-89 -16 -160 -103 -87 -165 176 223 -83 33 -295 -190 -186 -363 -59 -93 -190 -361 -168 -293 -183 -244 -224 -174 2 -13 -7 -7 &#xA;" /><Neuron weight="-19 11 55 -123 -129 -47 -42 -80 -424 -556 -559 -751 -519 -227 -784 -344 -229 -64 -94 -92 -96 -74 -294 -118 -31 -50 -47 17 &#xA;-125 -23 -77 -108 5 -19 -75 -10 -541 -787 -1069 -802 -616 -394 -831 -143 148 -130 -364 -335 -156 -80 -46 -342 -71 117 -43 -38 &#xA;-165 -89 -53 -4 -5 -202 -181 -179 -961 -1204 -1748 -2004 -2305 -1463 -886 -574 -272 -292 -1002 -1018 -870 -586 -426 12 3 81 -67 -85 &#xA;-39 -24 -128 44 -72 -38 -78 -378 -1237 -1334 -2152 -2904 -2595 -1442 11 -502 124 -174 -1240 -648 -833 -1468 -860 -6 -59 -147 -25 49 &#xA;-88 28 -73 -74 -105 -70 -595 -1224 -2043 -2043 -1116 -479 448 1609 1498 1905 1149 -512 -1234 -1063 -1285 -1155 -101 120 -504 -515 409 37 &#xA;-162 -2 -47 -184 -165 -850 -1635 -2185 -2190 -957 718 -213 756 317 -720 444 -566 -2351 -1613 -1560 -1460 -2524 -2248 -791 339 385 706 26 &#xA;-59 -48 -48 -166 91 -1172 -2428 -1871 -982 679 206 -729 2176 2356 857 -2344 -1242 -1067 456 -1623 -1950 -2805 -3465 -872 1161 291 800 -5 &#xA;39 -88 -80 -8 250 -886 -3175 -2982 -499 -508 -1071 2421 2377 1556 1245 -675 -1650 167 935 -1427 -3014 -3791 -2941 106 924 -1844 -274 -101 &#xA;-113 -297 285 -1171 -411 -2784 -3836 -1451 -1421 -1374 520 3846 -119 2226 1057 1575 717 1339 1538 -1843 -2133 -641 1025 -106 -1285 -2266 -322 133 &#xA;-1317 -719 -1068 -1519 -1475 -3090 -730 -1039 -163 974 1249 970 981 270 -8 -369 -517 -1445 -561 -3104 -2730 987 53 -1039 513 888 782 -632 &#xA;-799 77 -1448 -764 -2206 -2440 -1502 -1353 1046 1200 -562 -147 -1628 -1630 1345 159 1251 43 -56 -1952 -2634 825 2105 -513 519 1368 -236 -1389 &#xA;-941 -474 -1157 -1101 -2397 1136 -1398 430 -74 -1374 -2207 1537 3559 1109 1186 441 2292 -71 1564 -506 -3749 -1544 -547 -1476 -645 1201 -902 -1532 &#xA;-699 -1092 -932 -2255 -2352 1169 -179 -11 -942 -1414 -2573 2050 2922 -266 -1008 1047 1207 429 -693 -1764 -3442 -1828 1358 -3077 -1024 1357 -1417 -1496 &#xA;-826 -804 -677 -2363 -3261 948 2905 948 294 -2651 -37 -265 -394 256 -2205 -896 -3618 2156 -970 -1014 -1095 -322 -550 -1297 -2427 636 -1079 -2342 &#xA;-1055 -965 -878 -2184 -3389 -1070 4305 4511 1669 -325 -171 -2231 1645 135 766 -1409 -621 -1807 -719 -148 -1174 -2295 -349 -1286 -2047 465 2551 -2197 &#xA;-321 -481 -961 -3020 -3101 271 2088 4304 2423 385 -1294 2677 4810 2354 355 -238 -2534 -1780 -262 -696 -1484 -1724 -2842 -1972 -2155 863 2983 -1363 &#xA;-100 -1226 -1056 -1388 -4386 -2735 159 3485 3002 -1151 -2602 -300 850 329 -1780 490 -204 -1680 -1455 -779 -2289 -1936 -389 -1531 228 1611 2028 -1217 &#xA;-482 -216 -1649 -2455 -4558 -3258 1595 268 913 -2363 -223 889 1796 1946 1592 307 -172 195 1783 -578 -2225 -1496 -2150 -1886 340 1109 311 -1708 &#xA;-1065 -586 -574 -1526 -3367 -5584 -529 1254 -389 -936 -944 804 417 1589 -3 -179 653 1160 -233 -417 -970 -2062 -1908 -747 782 2530 297 -1105 &#xA;-311 -281 -1185 -544 -2458 -3785 -113 -1042 -2891 -2446 -1884 -859 2472 3964 -1558 1027 -1483 -560 -727 -1794 15 -984 -2441 -2796 -22 3541 213 -621 &#xA;-794 -329 -1054 -945 -2976 -3347 747 1164 -682 -470 -1337 1214 1456 1279 -2592 -1024 -2398 -2495 -1824 -1986 619 -765 -1842 -1683 2316 5670 2033 -7 &#xA;-708 -813 -755 -655 -2273 -4317 -1801 918 1708 -2332 -1978 421 1833 952 548 -2286 -2895 -639 -145 -669 -1390 122 -500 275 3100 4353 1715 366 &#xA;-196 -750 -1011 -630 -1561 -3925 -2894 -1981 -2164 -860 -986 123 1900 739 -114 -1267 -2524 -2386 -1214 -2080 -2132 -822 736 2199 3114 2399 303 339 &#xA;-461 -717 -607 -855 -153 -3453 -4743 -3663 -863 -1602 -1726 -869 356 -2233 -2526 -1709 -2530 -3129 -3535 -2278 -1178 -246 -666 1302 2882 1055 7 276 &#xA;-22 -61 -102 -64 -181 -1524 -3194 -2282 -1896 -2970 -2579 -2998 -3017 -2921 -2632 -2755 -1725 -2947 -1598 -418 -47 550 360 751 257 217 43 17 &#xA;-102 -99 -92 -99 -150 -515 -1273 -1010 -2047 -1703 -1198 -1734 -2058 -1539 -912 -882 -1193 -970 -86 -556 -336 -129 113 -271 71 85 15 1 &#xA;-24 -72 -48 -55 -103 -89 -211 -338 -735 -489 -892 -881 -997 -522 -237 -479 -824 -567 -242 -325 -197 -155 -67 -105 11 20 19 29 &#xA;-72 -64 -20 -63 -68 -82 -67 -128 -230 -314 -517 -302 -296 -225 -240 -223 -59 -131 -137 -86 -51 -147 -41 -38 34 21 17 36 &#xA;" /></Neurons></NeuralNetwork>